<?xml version="1.0"?>
<opencv_storage>
<stage3>
  <maxWeakCount>7</maxWeakCount>
  <stageThreshold>-2.1731724739074707e+00</stageThreshold>
  <weakClassifiers>
    <_>
      <internalNodes>
        0 -1 84741 -2.3525655269622803e-02</internalNodes>
      <leafValues>
        6.2404775619506836e-01 -7.9177755117416382e-01</leafValues></_>
    <_>
      <internalNodes>
        0 -1 7362 -1.0136090964078903e-01</internalNodes>
      <leafValues>
        3.6664232611656189e-01 -7.8283572196960449e-01</leafValues></_>
    <_>
      <internalNodes>
        0 -1 28596 8.7233800441026688e-03</internalNodes>
      <leafValues>
        -5.4763054847717285e-01 5.0498902797698975e-01</leafValues></_>
    <_>
      <internalNodes>
        0 -1 48976 1.0655616410076618e-02</internalNodes>
      <leafValues>
        -6.0495907068252563e-01 4.1866448521614075e-01</leafValues></_>
    <_>
      <internalNodes>
        0 -1 23507 9.3779839575290680e-02</internalNodes>
      <leafValues>
        -5.6660485267639160e-01 4.6823984384536743e-01</leafValues></_>
    <_>
      <internalNodes>
        0 -1 124733 -6.0778670012950897e-04</internalNodes>
      <leafValues>
        3.0816897749900818e-01 -6.6446256637573242e-01</leafValues></_>
    <_>
      <internalNodes>
        0 -1 71176 1.7747674137353897e-02</internalNodes>
      <leafValues>
        -2.4015332758426666e-01 7.6075255870819092e-01</leafValues></_></weakClassifiers></stage3>
</opencv_storage>
