<?xml version="1.0"?>
<opencv_storage>
<cascade>
  <stageType>BOOST</stageType>
  <featureType>HAAR</featureType>
  <height>20</height>
  <width>20</width>
  <stageParams>
    <boostType>GAB</boostType>
    <minHitRate>9.9500000476837158e-01</minHitRate>
    <maxFalseAlarm>5.0000000000000000e-01</maxFalseAlarm>
    <weightTrimRate>9.4999999999999996e-01</weightTrimRate>
    <maxDepth>1</maxDepth>
    <maxWeakCount>100</maxWeakCount></stageParams>
  <featureParams>
    <maxCatCount>0</maxCatCount>
    <featSize>1</featSize>
    <mode>ALL</mode></featureParams>
  <stageNum>4</stageNum>
  <stages>
    <!-- stage 0 -->
    <_>
      <maxWeakCount>5</maxWeakCount>
      <stageThreshold>-2.4083702564239502e+00</stageThreshold>
      <weakClassifiers>
        <_>
          <internalNodes>
            0 -1 3 2.8555932641029358e-01</internalNodes>
          <leafValues>
            -9.2745262384414673e-01 7.5528699159622192e-01</leafValues></_>
        <_>
          <internalNodes>
            0 -1 10 9.3346372246742249e-02</internalNodes>
          <leafValues>
            -7.3573052883148193e-01 6.3471829891204834e-01</leafValues></_>
        <_>
          <internalNodes>
            0 -1 19 -9.5018185675144196e-03</internalNodes>
          <leafValues>
            3.9435830712318420e-01 -7.9981517791748047e-01</leafValues></_>
        <_>
          <internalNodes>
            0 -1 12 -1.7626648768782616e-02</internalNodes>
          <leafValues>
            4.2585650086402893e-01 -6.3230174779891968e-01</leafValues></_>
        <_>
          <internalNodes>
            0 -1 2 2.3366447538137436e-02</internalNodes>
          <leafValues>
            -5.0724375247955322e-01 5.7782512903213501e-01</leafValues></_></weakClassifiers></_>
    <!-- stage 1 -->
    <_>
      <maxWeakCount>5</maxWeakCount>
      <stageThreshold>-1.7146000862121582e+00</stageThreshold>
      <weakClassifiers>
        <_>
          <internalNodes>
            0 -1 18 5.7172909379005432e-02</internalNodes>
          <leafValues>
            -8.3497899770736694e-01 7.4219238758087158e-01</leafValues></_>
        <_>
          <internalNodes>
            0 -1 9 6.6202610731124878e-02</internalNodes>
          <leafValues>
            -7.5859308242797852e-01 6.7000430822372437e-01</leafValues></_>
        <_>
          <internalNodes>
            0 -1 15 1.1443847790360451e-02</internalNodes>
          <leafValues>
            -7.7425056695938110e-01 4.3642386794090271e-01</leafValues></_>
        <_>
          <internalNodes>
            0 -1 5 3.6769211292266846e-02</internalNodes>
          <leafValues>
            -8.4091645479202271e-01 3.6567899584770203e-01</leafValues></_>
        <_>
          <internalNodes>
            0 -1 20 -5.3768020734423772e-05</internalNodes>
          <leafValues>
            2.8754356503486633e-01 -7.8605860471725464e-01</leafValues></_></weakClassifiers></_>
    <!-- stage 2 -->
    <_>
      <maxWeakCount>6</maxWeakCount>
      <stageThreshold>-1.8448610305786133e+00</stageThreshold>
      <weakClassifiers>
        <_>
          <internalNodes>
            0 -1 17 7.1922779083251953e-02</internalNodes>
          <leafValues>
            -8.0029720067977905e-01 6.2772679328918457e-01</leafValues></_>
        <_>
          <internalNodes>
            0 -1 0 2.1845830604434013e-02</internalNodes>
          <leafValues>
            -7.1285432577133179e-01 5.8434844017028809e-01</leafValues></_>
        <_>
          <internalNodes>
            0 -1 4 1.8810671567916870e-01</internalNodes>
          <leafValues>
            -7.4390679597854614e-01 5.0712299346923828e-01</leafValues></_>
        <_>
          <internalNodes>
            0 -1 13 -1.2389836832880974e-02</internalNodes>
          <leafValues>
            4.5720389485359192e-01 -5.9439629316329956e-01</leafValues></_>
        <_>
          <internalNodes>
            0 -1 16 -2.4784067645668983e-03</internalNodes>
          <leafValues>
            4.6061041951179504e-01 -6.4047354459762573e-01</leafValues></_>
        <_>
          <internalNodes>
            0 -1 12 -2.7652487158775330e-02</internalNodes>
          <leafValues>
            5.4598319530487061e-01 -4.9341714382171631e-01</leafValues></_></weakClassifiers></_>
    <!-- stage 3 -->
    <_>
      <maxWeakCount>7</maxWeakCount>
      <stageThreshold>-2.1731724739074707e+00</stageThreshold>
      <weakClassifiers>
        <_>
          <internalNodes>
            0 -1 14 -2.3525655269622803e-02</internalNodes>
          <leafValues>
            6.2404775619506836e-01 -7.9177755117416382e-01</leafValues></_>
        <_>
          <internalNodes>
            0 -1 1 -1.0136090964078903e-01</internalNodes>
          <leafValues>
            3.6664232611656189e-01 -7.8283572196960449e-01</leafValues></_>
        <_>
          <internalNodes>
            0 -1 7 8.7233800441026688e-03</internalNodes>
          <leafValues>
            -5.4763054847717285e-01 5.0498902797698975e-01</leafValues></_>
        <_>
          <internalNodes>
            0 -1 8 1.0655616410076618e-02</internalNodes>
          <leafValues>
            -6.0495907068252563e-01 4.1866448521614075e-01</leafValues></_>
        <_>
          <internalNodes>
            0 -1 6 9.3779839575290680e-02</internalNodes>
          <leafValues>
            -5.6660485267639160e-01 4.6823984384536743e-01</leafValues></_>
        <_>
          <internalNodes>
            0 -1 21 -6.0778670012950897e-04</internalNodes>
          <leafValues>
            3.0816897749900818e-01 -6.6446256637573242e-01</leafValues></_>
        <_>
          <internalNodes>
            0 -1 11 1.7747674137353897e-02</internalNodes>
          <leafValues>
            -2.4015332758426666e-01 7.6075255870819092e-01</leafValues></_></weakClassifiers></_></stages>
  <features>
    <_>
      <rects>
        <_>
          0 9 4 9 -1.</_>
        <_>
          2 9 2 9 2.</_></rects>
      <tilted>0</tilted></_>
    <_>
      <rects>
        <_>
          0 9 11 10 -1.</_>
        <_>
          0 14 11 5 2.</_></rects>
      <tilted>0</tilted></_>
    <_>
      <rects>
        <_>
          0 12 9 5 -1.</_>
        <_>
          3 12 3 5 3.</_></rects>
      <tilted>0</tilted></_>
    <_>
      <rects>
        <_>
          1 2 16 15 -1.</_>
        <_>
          1 7 16 5 3.</_></rects>
      <tilted>0</tilted></_>
    <_>
      <rects>
        <_>
          2 3 14 16 -1.</_>
        <_>
          2 7 14 8 2.</_></rects>
      <tilted>0</tilted></_>
    <_>
      <rects>
        <_>
          2 4 15 6 -1.</_>
        <_>
          2 7 15 3 2.</_></rects>
      <tilted>0</tilted></_>
    <_>
      <rects>
        <_>
          2 4 16 6 -1.</_>
        <_>
          2 7 16 3 2.</_></rects>
      <tilted>0</tilted></_>
    <_>
      <rects>
        <_>
          2 16 8 4 -1.</_>
        <_>
          2 16 4 2 2.</_>
        <_>
          6 18 4 2 2.</_></rects>
      <tilted>0</tilted></_>
    <_>
      <rects>
        <_>
          5 2 8 5 -1.</_>
        <_>
          7 2 4 5 2.</_></rects>
      <tilted>0</tilted></_>
    <_>
      <rects>
        <_>
          7 3 8 7 -1.</_>
        <_>
          9 5 4 7 2.</_></rects>
      <tilted>1</tilted></_>
    <_>
      <rects>
        <_>
          7 4 6 9 -1.</_>
        <_>
          9 7 2 3 9.</_></rects>
      <tilted>0</tilted></_>
    <_>
      <rects>
        <_>
          7 12 6 4 -1.</_>
        <_>
          7 13 6 2 2.</_></rects>
      <tilted>0</tilted></_>
    <_>
      <rects>
        <_>
          9 0 2 8 -1.</_>
        <_>
          7 2 2 4 2.</_></rects>
      <tilted>1</tilted></_>
    <_>
      <rects>
        <_>
          9 4 8 7 -1.</_>
        <_>
          11 4 4 7 2.</_></rects>
      <tilted>0</tilted></_>
    <_>
      <rects>
        <_>
          9 8 2 6 -1.</_>
        <_>
          9 11 2 3 2.</_></rects>
      <tilted>0</tilted></_>
    <_>
      <rects>
        <_>
          12 8 8 11 -1.</_>
        <_>
          14 8 4 11 2.</_></rects>
      <tilted>0</tilted></_>
    <_>
      <rects>
        <_>
          12 19 8 1 -1.</_>
        <_>
          16 19 4 1 2.</_></rects>
      <tilted>0</tilted></_>
    <_>
      <rects>
        <_>
          13 2 4 8 -1.</_>
        <_>
          11 4 4 4 2.</_></rects>
      <tilted>1</tilted></_>
    <_>
      <rects>
        <_>
          14 3 3 8 -1.</_>
        <_>
          12 5 3 4 2.</_></rects>
      <tilted>1</tilted></_>
    <_>
      <rects>
        <_>
          16 12 4 8 -1.</_>
        <_>
          16 16 4 4 2.</_></rects>
      <tilted>0</tilted></_>
    <_>
      <rects>
        <_>
          17 16 2 2 -1.</_>
        <_>
          17 17 2 1 2.</_></rects>
      <tilted>0</tilted></_>
    <_>
      <rects>
        <_>
          18 14 2 5 -1.</_>
        <_>
          19 14 1 5 2.</_></rects>
      <tilted>0</tilted></_></features></cascade>
</opencv_storage>
